<?xml version="1.0"?>
<opencv_storage>
<!-- Created using Computer Vision System Toolbox(tm) for MATLAB(R) -->
<!-- Version 9.2.0.538062 (R2017a) -->
<!-- Compatible with OpenCV 3.1 -->
<cascade>
  <stageType>BOOST</stageType>
  <featureType>HAAR</featureType>
  <height>12</height>
  <width>12</width>
  <stageParams>
    <boostType>GAB</boostType>
    <minHitRate>9.9900001287460327e-01</minHitRate>
    <maxFalseAlarm>5.0000000000000000e-01</maxFalseAlarm>
    <weightTrimRate>9.4999999999999996e-01</weightTrimRate>
    <maxDepth>1</maxDepth>
    <maxWeakCount>100</maxWeakCount></stageParams>
  <featureParams>
    <maxCatCount>0</maxCatCount>
    <featSize>1</featSize>
    <mode>BASIC</mode></featureParams>
  <stageNum>30</stageNum>
  <stages>
    <!-- stage 0 -->
    <_>
      <maxWeakCount>7</maxWeakCount>
      <stageThreshold>-2.7878689765930176e+00</stageThreshold>
      <weakClassifiers>
        <_>
          <internalNodes>
            0 -1 482 -3.8486444950103760e-01</internalNodes>
          <leafValues>
            6.9842314720153809e-01 -8.6900901794433594e-01</leafValues></_>
        <_>
          <internalNodes>
            0 -1 120 -2.7579274773597717e-01</internalNodes>
          <leafValues>
            6.5811890363693237e-01 -8.4607523679733276e-01</leafValues></_>
        <_>
          <internalNodes>
            0 -1 1413 4.1975924978032708e-04</internalNodes>
          <leafValues>
            -6.9081896543502808e-01 4.5806759595870972e-01</leafValues></_>
        <_>
          <internalNodes>
            0 -1 606 -2.2134417667984962e-04</internalNodes>
          <leafValues>
            4.3893516063690186e-01 -6.3338929414749146e-01</leafValues></_>
        <_>
          <internalNodes>
            0 -1 1444 -5.9034890728071332e-04</internalNodes>
          <leafValues>
            4.6012029051780701e-01 -5.0195431709289551e-01</leafValues></_>
        <_>
          <internalNodes>
            0 -1 277 -8.3081529010087252e-04</internalNodes>
          <leafValues>
            3.9164912700653076e-01 -4.2870202660560608e-01</leafValues></_>
        <_>
          <internalNodes>
            0 -1 1305 -4.9801630666479468e-04</internalNodes>
          <leafValues>
            3.6172860860824585e-01 -3.7977540493011475e-01</leafValues></_></weakClassifiers></_>
    <!-- stage 1 -->
    <_>
      <maxWeakCount>11</maxWeakCount>
      <stageThreshold>-2.8420927524566650e+00</stageThreshold>
      <weakClassifiers>
        <_>
          <internalNodes>
            0 -1 85 -4.0430375933647156e-01</internalNodes>
          <leafValues>
            5.2734839916229248e-01 -8.5567384958267212e-01</leafValues></_>
        <_>
          <internalNodes>
            0 -1 686 -3.3909469842910767e-01</internalNodes>
          <leafValues>
            6.3363552093505859e-01 -8.0873876810073853e-01</leafValues></_>
        <_>
          <internalNodes>
            0 -1 731 -7.5641736388206482e-02</internalNodes>
          <leafValues>
            3.1442365050315857e-01 -6.6487252712249756e-01</leafValues></_>
        <_>
          <internalNodes>
            0 -1 138 -1.2234489619731903e-01</internalNodes>
          <leafValues>
            3.1500950455665588e-01 -5.1077693700790405e-01</leafValues></_>
        <_>
          <internalNodes>
            0 -1 200 -2.6817388832569122e-02</internalNodes>
          <leafValues>
            4.4827967882156372e-01 -3.0551344156265259e-01</leafValues></_>
        <_>
          <internalNodes>
            0 -1 101 -3.9521921426057816e-03</internalNodes>
          <leafValues>
            2.0223060250282288e-01 -4.8726591467857361e-01</leafValues></_>
        <_>
          <internalNodes>
            0 -1 538 2.8518889099359512e-02</internalNodes>
          <leafValues>
            1.1483205854892731e-01 -8.2037693262100220e-01</leafValues></_>
        <_>
          <internalNodes>
            0 -1 1481 -6.3218344002962112e-03</internalNodes>
          <leafValues>
            -7.7033019065856934e-01 7.5578004121780396e-02</leafValues></_>
        <_>
          <internalNodes>
            0 -1 671 1.9542202353477478e-02</internalNodes>
          <leafValues>
            9.1546922922134399e-02 -7.1083074808120728e-01</leafValues></_>
        <_>
          <internalNodes>
            0 -1 1080 -5.6804516352713108e-03</internalNodes>
          <leafValues>
            1.6093894839286804e-01 -4.2109534144401550e-01</leafValues></_>
        <_>
          <internalNodes>
            0 -1 920 5.4247095249593258e-03</internalNodes>
          <leafValues>
            1.0410052537918091e-01 -7.8345024585723877e-01</leafValues></_></weakClassifiers></_>
    <!-- stage 2 -->
    <_>
      <maxWeakCount>21</maxWeakCount>
      <stageThreshold>-2.5156147480010986e+00</stageThreshold>
      <weakClassifiers>
        <_>
          <internalNodes>
            0 -1 85 -4.1917490959167480e-01</internalNodes>
          <leafValues>
            3.6708861589431763e-01 -8.3403927087783813e-01</leafValues></_>
        <_>
          <internalNodes>
            0 -1 482 -4.1902145743370056e-01</internalNodes>
          <leafValues>
            4.3277651071548462e-01 -7.2614610195159912e-01</leafValues></_>
        <_>
          <internalNodes>
            0 -1 1597 1.0839656461030245e-03</internalNodes>
          <leafValues>
            -5.3461503982543945e-01 3.8630509376525879e-01</leafValues></_>
        <_>
          <internalNodes>
            0 -1 519 -6.3729891553521156e-03</internalNodes>
          <leafValues>
            2.8546077013015747e-01 -5.5086565017700195e-01</leafValues></_>
        <_>
          <internalNodes>
            0 -1 1209 -1.1658629402518272e-02</internalNodes>
          <leafValues>
            2.3531611263751984e-01 -6.5623629093170166e-01</leafValues></_>
        <_>
          <internalNodes>
            0 -1 1062 -2.2167530842125416e-03</internalNodes>
          <leafValues>
            2.1552160382270813e-01 -4.7470200061798096e-01</leafValues></_>
        <_>
          <internalNodes>
            0 -1 880 -1.7814525635913014e-03</internalNodes>
          <leafValues>
            2.3755377531051636e-01 -3.5381126403808594e-01</leafValues></_>
        <_>
          <internalNodes>
            0 -1 902 -2.4628266692161560e-02</internalNodes>
          <leafValues>
            -7.7907729148864746e-01 9.6341252326965332e-02</leafValues></_>
        <_>
          <internalNodes>
            0 -1 1361 -3.5677303094416857e-04</internalNodes>
          <leafValues>
            2.1851454675197601e-01 -3.5195469856262207e-01</leafValues></_>
        <_>
          <internalNodes>
            0 -1 318 -1.4191949740052223e-03</internalNodes>
          <leafValues>
            2.8566122055053711e-01 -2.5230124592781067e-01</leafValues></_>
        <_>
          <internalNodes>
            0 -1 1605 -4.5119370333850384e-03</internalNodes>
          <leafValues>
            -7.7520036697387695e-01 8.7286449968814850e-02</leafValues></_>
        <_>
          <internalNodes>
            0 -1 1085 -4.8804157413542271e-03</internalNodes>
          <leafValues>
            -8.8764381408691406e-01 6.1046984046697617e-02</leafValues></_>
        <_>
          <internalNodes>
            0 -1 917 3.6351752933114767e-03</internalNodes>
          <leafValues>
            6.1874337494373322e-02 -7.6985383033752441e-01</leafValues></_>
        <_>
          <internalNodes>
            0 -1 767 -5.2622915245592594e-04</internalNodes>
          <leafValues>
            1.5030637383460999e-01 -3.8512283563613892e-01</leafValues></_>
        <_>
          <internalNodes>
            0 -1 1054 -9.2396829277276993e-03</internalNodes>
          <leafValues>
            -9.0584772825241089e-01 5.8024674654006958e-02</leafValues></_>
        <_>
          <internalNodes>
            0 -1 1099 4.6835686080157757e-03</internalNodes>
          <leafValues>
            4.2726088315248489e-02 -9.0123891830444336e-01</leafValues></_>
        <_>
          <internalNodes>
            0 -1 1573 6.5870466642081738e-04</internalNodes>
          <leafValues>
            -2.1940132975578308e-01 2.4060386419296265e-01</leafValues></_>
        <_>
          <internalNodes>
            0 -1 7 -3.0594449490308762e-03</internalNodes>
          <leafValues>
            2.6233875751495361e-01 -1.9785603880882263e-01</leafValues></_>
        <_>
          <internalNodes>
            0 -1 194 -4.3558865785598755e-02</internalNodes>
          <leafValues>
            2.3392891883850098e-01 -2.1366241574287415e-01</leafValues></_>
        <_>
          <internalNodes>
            0 -1 1466 -3.1631090678274632e-03</internalNodes>
          <leafValues>
            -6.7886185646057129e-01 6.5585173666477203e-02</leafValues></_>
        <_>
          <internalNodes>
            0 -1 679 -5.0083860754966736e-02</internalNodes>
          <leafValues>
            2.8795415163040161e-01 -1.8645995855331421e-01</leafValues></_></weakClassifiers></_>
    <!-- stage 3 -->
    <_>
      <maxWeakCount>34</maxWeakCount>
      <stageThreshold>-2.4652478694915771e+00</stageThreshold>
      <weakClassifiers>
        <_>
          <internalNodes>
            0 -1 687 -1.5127831697463989e-01</internalNodes>
          <leafValues>
            1.4653323590755463e-01 -7.6093417406082153e-01</leafValues></_>
        <_>
          <internalNodes>
            0 -1 121 -3.0864509940147400e-01</internalNodes>
          <leafValues>
            3.4756007790565491e-01 -7.7072626352310181e-01</leafValues></_>
        <_>
          <internalNodes>
            0 -1 567 -1.4308458566665649e-01</internalNodes>
          <leafValues>
            3.8685107231140137e-01 -5.9670037031173706e-01</leafValues></_>
        <_>
          <internalNodes>
            0 -1 1032 -2.5079861283302307e-02</internalNodes>
          <leafValues>
            2.8293067216873169e-01 -5.3330862522125244e-01</leafValues></_>
        <_>
          <internalNodes>
            0 -1 735 -7.4906591325998306e-03</internalNodes>
          <leafValues>
            1.8241763114929199e-01 -5.6675791740417480e-01</leafValues></_>
        <_>
          <internalNodes>
            0 -1 50 -1.1979447305202484e-01</internalNodes>
          <leafValues>
            3.9924773573875427e-01 -2.7034825086593628e-01</leafValues></_>
        <_>
          <internalNodes>
            0 -1 1223 -2.9982514679431915e-03</internalNodes>
          <leafValues>
            1.7801558971405029e-01 -4.5402666926383972e-01</leafValues></_>
        <_>
          <internalNodes>
            0 -1 1417 4.1388731915503740e-04</internalNodes>
          <leafValues>
            -3.6073309183120728e-01 1.8465928733348846e-01</leafValues></_>
        <_>
          <internalNodes>
            0 -1 626 -3.5453200689516962e-04</internalNodes>
          <leafValues>
            1.4511628448963165e-01 -4.0179497003555298e-01</leafValues></_>
        <_>
          <internalNodes>
            0 -1 1038 4.0939804166555405e-03</internalNodes>
          <leafValues>
            5.5434875190258026e-02 -8.1643784046173096e-01</leafValues></_>
        <_>
          <internalNodes>
            0 -1 1460 -1.3107124716043472e-02</internalNodes>
          <leafValues>
            -8.0939424037933350e-01 4.6207617968320847e-02</leafValues></_>
        <_>
          <internalNodes>
            0 -1 771 2.2724750451743603e-03</internalNodes>
          <leafValues>
            4.0310528129339218e-02 -5.7480102777481079e-01</leafValues></_>
        <_>
          <internalNodes>
            0 -1 1007 -4.9581925850361586e-04</internalNodes>
          <leafValues>
            1.9802530109882355e-01 -2.1111041307449341e-01</leafValues></_>
        <_>
          <internalNodes>
            0 -1 1007 -7.8553482890129089e-03</internalNodes>
          <leafValues>
            -7.8463125228881836e-01 8.2540199160575867e-02</leafValues></_>
        <_>
          <internalNodes>
            0 -1 1148 -3.5807080566883087e-02</internalNodes>
          <leafValues>
            2.2144871950149536e-01 -1.9261957705020905e-01</leafValues></_>
        <_>
          <internalNodes>
            0 -1 1349 -5.1489856559783220e-04</internalNodes>
          <leafValues>
            1.5682421624660492e-01 -3.0086159706115723e-01</leafValues></_>
        <_>
          <internalNodes>
            0 -1 674 -1.2362606823444366e-02</internalNodes>
          <leafValues>
            2.8839763998985291e-01 -1.6218170523643494e-01</leafValues></_>
        <_>
          <internalNodes>
            0 -1 1390 5.2119172178208828e-03</internalNodes>
          <leafValues>
            4.5536100864410400e-02 -8.5254758596420288e-01</leafValues></_>
        <_>
          <internalNodes>
            0 -1 590 -6.9330250844359398e-03</internalNodes>
          <leafValues>
            -9.4148790836334229e-01 2.2787446156144142e-02</leafValues></_>
        <_>
          <internalNodes>
            0 -1 1380 -5.2534660790115595e-04</internalNodes>
          <leafValues>
            1.2490306049585342e-01 -2.5507476925849915e-01</leafValues></_>
        <_>
          <internalNodes>
            0 -1 384 -1.5841923654079437e-02</internalNodes>
          <leafValues>
            -8.1083905696868896e-01 4.2747098952531815e-02</leafValues></_>
        <_>
          <internalNodes>
            0 -1 1277 -8.6302068084478378e-03</internalNodes>
          <leafValues>
            -7.8211599588394165e-01 3.2941814512014389e-02</leafValues></_>
        <_>
          <internalNodes>
            0 -1 988 -4.1051884181797504e-03</internalNodes>
          <leafValues>
            1.4023092389106750e-01 -2.1806119382381439e-01</leafValues></_>
        <_>
          <internalNodes>
            0 -1 1423 9.1381538659334183e-03</internalNodes>
          <leafValues>
            4.4331587851047516e-02 -7.1510088443756104e-01</leafValues></_>
        <_>
          <internalNodes>
            0 -1 266 -6.5972572192549706e-03</internalNodes>
          <leafValues>
            2.3621951043605804e-01 -1.3613422214984894e-01</leafValues></_>
        <_>
          <internalNodes>
            0 -1 350 -3.2248687930405140e-03</internalNodes>
          <leafValues>
            1.9590529799461365e-01 -1.7171169817447662e-01</leafValues></_>
        <_>
          <internalNodes>
            0 -1 661 -5.3467915859073400e-04</internalNodes>
          <leafValues>
            1.8535856902599335e-01 -1.7841079831123352e-01</leafValues></_>
        <_>
          <internalNodes>
            0 -1 23 -1.0169586539268494e-01</internalNodes>
          <leafValues>
            3.1071165204048157e-01 -1.1617553234100342e-01</leafValues></_>
        <_>
          <internalNodes>
            0 -1 1029 1.2770686298608780e-02</internalNodes>
          <leafValues>
            4.3546330183744431e-02 -6.9295299053192139e-01</leafValues></_>
        <_>
          <internalNodes>
            0 -1 653 -9.1055575758218765e-03</internalNodes>
          <leafValues>
            -6.9694548845291138e-01 3.3648166805505753e-02</leafValues></_>
        <_>
          <internalNodes>
            0 -1 1504 1.9929329864680767e-03</internalNodes>
          <leafValues>
            -1.1939476430416107e-01 2.6664686203002930e-01</leafValues></_>
        <_>
          <internalNodes>
            0 -1 349 -1.0820458643138409e-02</internalNodes>
          <leafValues>
            -9.2948228120803833e-01 3.3427998423576355e-02</leafValues></_>
        <_>
          <internalNodes>
            0 -1 1612 -1.0662110522389412e-02</internalNodes>
          <leafValues>
            -8.2753187417984009e-01 2.3658137768507004e-02</leafValues></_>
        <_>
          <internalNodes>
            0 -1 920 3.3793218899518251e-03</internalNodes>
          <leafValues>
            5.1273383200168610e-02 -4.5917627215385437e-01</leafValues></_></weakClassifiers></_>
    <!-- stage 4 -->
    <_>
      <maxWeakCount>45</maxWeakCount>
      <stageThreshold>-2.2283000946044922e+00</stageThreshold>
      <weakClassifiers>
        <_>
          <internalNodes>
            0 -1 85 -5.7073360681533813e-01</internalNodes>
          <leafValues>
            2.2286060452461243e-01 -6.6178572177886963e-01</leafValues></_>
        <_>
          <internalNodes>
            0 -1 485 -5.5157130956649780e-01</internalNodes>
          <leafValues>
            3.7910929322242737e-01 -5.5152630805969238e-01</leafValues></_>
        <_>
          <internalNodes>
            0 -1 711 -1.2675309181213379e-01</internalNodes>
          <leafValues>
            2.8449833393096924e-01 -5.6971055269241333e-01</leafValues></_>
        <_>
          <internalNodes>
            0 -1 417 -8.7249616626650095e-04</internalNodes>
          <leafValues>
            2.7710628509521484e-01 -4.6862339973449707e-01</leafValues></_>
        <_>
          <internalNodes>
            0 -1 513 -1.1442379653453827e-01</internalNodes>
          <leafValues>
            1.9262304902076721e-01 -5.0545626878738403e-01</leafValues></_>
        <_>
          <internalNodes>
            0 -1 553 -1.5600981190800667e-02</internalNodes>
          <leafValues>
            1.4642807841300964e-01 -4.3000185489654541e-01</leafValues></_>
        <_>
          <internalNodes>
            0 -1 1602 4.7869933769106865e-04</internalNodes>
          <leafValues>
            -3.2259330153465271e-01 1.7084573209285736e-01</leafValues></_>
        <_>
          <internalNodes>
            0 -1 891 -1.1160928755998611e-02</internalNodes>
          <leafValues>
            -7.2958105802536011e-01 7.0349365472793579e-02</leafValues></_>
        <_>
          <internalNodes>
            0 -1 1159 -2.1021075546741486e-02</internalNodes>
          <leafValues>
            -7.9205411672592163e-01 5.4930321872234344e-02</leafValues></_>
        <_>
          <internalNodes>
            0 -1 1182 -3.2448740676045418e-03</internalNodes>
          <leafValues>
            1.6066661477088928e-01 -3.0632728338241577e-01</leafValues></_>
        <_>
          <internalNodes>
            0 -1 1465 -2.4323735851794481e-03</internalNodes>
          <leafValues>
            1.2534616887569427e-01 -3.5403317213058472e-01</leafValues></_>
        <_>
          <internalNodes>
            0 -1 1552 -1.8060544505715370e-02</internalNodes>
          <leafValues>
            -7.5507146120071411e-01 5.9790369123220444e-02</leafValues></_>
        <_>
          <internalNodes>
            0 -1 1544 -1.4020871371030807e-02</internalNodes>
          <leafValues>
            -8.1747126579284668e-01 8.0294348299503326e-03</leafValues></_>
        <_>
          <internalNodes>
            0 -1 1055 4.3800091370940208e-03</internalNodes>
          <leafValues>
            6.3038170337677002e-02 -8.6300516128540039e-01</leafValues></_>
        <_>
          <internalNodes>
            0 -1 1488 -6.4030550420284271e-03</internalNodes>
          <leafValues>
            1.8816861510276794e-01 -2.1084146201610565e-01</leafValues></_>
        <_>
          <internalNodes>
            0 -1 1558 -8.6601339280605316e-03</internalNodes>
          <leafValues>
            -7.0222103595733643e-01 7.6806634664535522e-02</leafValues></_>
        <_>
          <internalNodes>
            0 -1 1438 -3.3669734839349985e-03</internalNodes>
          <leafValues>
            1.4291690289974213e-01 -2.6358515024185181e-01</leafValues></_>
        <_>
          <internalNodes>
            0 -1 334 -4.0903944522142410e-02</internalNodes>
          <leafValues>
            9.6646249294281006e-02 -3.3446645736694336e-01</leafValues></_>
        <_>
          <internalNodes>
            0 -1 788 -1.3501133769750595e-02</internalNodes>
          <leafValues>
            -7.2449266910552979e-01 4.6753194183111191e-02</leafValues></_>
        <_>
          <internalNodes>
            0 -1 980 -6.7709363065660000e-03</internalNodes>
          <leafValues>
            -6.5090924501419067e-01 4.6699009835720062e-02</leafValues></_>
        <_>
          <internalNodes>
            0 -1 1299 -1.8487837165594101e-02</internalNodes>
          <leafValues>
            -6.8285107612609863e-01 4.5556440949440002e-02</leafValues></_>
        <_>
          <internalNodes>
            0 -1 397 -1.0489461943507195e-02</internalNodes>
          <leafValues>
            -7.4462175369262695e-01 3.8187935948371887e-02</leafValues></_>
        <_>
          <internalNodes>
            0 -1 216 -9.2705863062292337e-04</internalNodes>
          <leafValues>
            2.3306611180305481e-01 -1.2721194326877594e-01</leafValues></_>
        <_>
          <internalNodes>
            0 -1 147 2.9615307226777077e-02</internalNodes>
          <leafValues>
            -9.2163138091564178e-02 3.2540905475616455e-01</leafValues></_>
        <_>
          <internalNodes>
            0 -1 756 -1.2418260797858238e-02</internalNodes>
          <leafValues>
            -6.1173838376998901e-01 5.9034582227468491e-02</leafValues></_>
        <_>
          <internalNodes>
            0 -1 615 -1.6550567001104355e-02</internalNodes>
          <leafValues>
            -6.0822898149490356e-01 4.3017994612455368e-02</leafValues></_>
        <_>
          <internalNodes>
            0 -1 785 -4.6470481902360916e-04</internalNodes>
          <leafValues>
            1.6620649397373199e-01 -1.7924441397190094e-01</leafValues></_>
        <_>
          <internalNodes>
            0 -1 1378 -1.6885856166481972e-03</internalNodes>
          <leafValues>
            1.4505924284458160e-01 -1.7634475231170654e-01</leafValues></_>
        <_>
          <internalNodes>
            0 -1 190 -4.9819081323221326e-04</internalNodes>
          <leafValues>
            9.6784010529518127e-02 -2.8636604547500610e-01</leafValues></_>
        <_>
          <internalNodes>
            0 -1 209 2.1240092813968658e-02</internalNodes>
          <leafValues>
            3.2621242105960846e-02 -7.5869339704513550e-01</leafValues></_>
        <_>
          <internalNodes>
            0 -1 1610 -5.6697744876146317e-03</internalNodes>
          <leafValues>
            3.8264238834381104e-01 -7.8045547008514404e-02</leafValues></_>
        <_>
          <internalNodes>
            0 -1 858 -5.5041280575096607e-04</internalNodes>
          <leafValues>
            1.9449771940708160e-01 -1.3374964892864227e-01</leafValues></_>
        <_>
          <internalNodes>
            0 -1 572 6.6195614635944366e-03</internalNodes>
          <leafValues>
            2.6989117264747620e-02 -8.4864246845245361e-01</leafValues></_>
        <_>
          <internalNodes>
            0 -1 986 -1.4293981948867440e-03</internalNodes>
          <leafValues>
            1.0708761960268021e-01 -2.1857075393199921e-01</leafValues></_>
        <_>
          <internalNodes>
            0 -1 395 -3.9088279008865356e-02</internalNodes>
          <leafValues>
            1.4130361378192902e-01 -1.8786872923374176e-01</leafValues></_>
        <_>
          <internalNodes>
            0 -1 1021 -7.9940631985664368e-03</internalNodes>
          <leafValues>
            -6.7372232675552368e-01 3.5309370607137680e-02</leafValues></_>
        <_>
          <internalNodes>
            0 -1 250 -7.1857497096061707e-04</internalNodes>
          <leafValues>
            1.9843176007270813e-01 -1.3053183257579803e-01</leafValues></_>
        <_>
          <internalNodes>
            0 -1 250 -8.9383665472269058e-03</internalNodes>
          <leafValues>
            -7.1668368577957153e-01 4.0798578411340714e-02</leafValues></_>
        <_>
          <internalNodes>
            0 -1 375 1.0702133178710938e-02</internalNodes>
          <leafValues>
            4.2976878583431244e-02 -5.3755980730056763e-01</leafValues></_>
        <_>
          <internalNodes>
            0 -1 431 -6.9507164880633354e-03</internalNodes>
          <leafValues>
            1.8112732470035553e-01 -1.3949015736579895e-01</leafValues></_>
        <_>
          <internalNodes>
            0 -1 557 7.5136363506317139e-02</internalNodes>
          <leafValues>
            -5.2814003080129623e-02 5.6389760971069336e-01</leafValues></_>
        <_>
          <internalNodes>
            0 -1 1267 -7.5862449593842030e-03</internalNodes>
          <leafValues>
            1.7394769191741943e-01 -1.5537984669208527e-01</leafValues></_>
        <_>
          <internalNodes>
            0 -1 1280 1.2103510089218616e-02</internalNodes>
          <leafValues>
            3.6074895411729813e-02 -6.7657351493835449e-01</leafValues></_>
        <_>
          <internalNodes>
            0 -1 1101 -3.1116516329348087e-03</internalNodes>
          <leafValues>
            1.5321251749992371e-01 -1.6744160652160645e-01</leafValues></_>
        <_>
          <internalNodes>
            0 -1 1131 -1.0458929464221001e-02</internalNodes>
          <leafValues>
            -5.3207868337631226e-01 4.7873314470052719e-02</leafValues></_></weakClassifiers></_>
    <!-- stage 5 -->
    <_>
      <maxWeakCount>56</maxWeakCount>
      <stageThreshold>-2.1030461788177490e+00</stageThreshold>
      <weakClassifiers>
        <_>
          <internalNodes>
            0 -1 482 -4.4924825429916382e-01</internalNodes>
          <leafValues>
            7.9069770872592926e-02 -7.5728595256805420e-01</leafValues></_>
        <_>
          <internalNodes>
            0 -1 84 -3.8584643602371216e-01</internalNodes>
          <leafValues>
            2.8957697749137878e-01 -6.4683228731155396e-01</leafValues></_>
        <_>
          <internalNodes>
            0 -1 1003 -1.3518086075782776e-01</internalNodes>
          <leafValues>
            1.4323358237743378e-01 -6.7997866868972778e-01</leafValues></_>
        <_>
          <internalNodes>
            0 -1 635 -5.4840894881635904e-04</internalNodes>
          <leafValues>
            2.2515155375003815e-01 -4.2372599244117737e-01</leafValues></_>
        <_>
          <internalNodes>
            0 -1 1045 -1.1998850852251053e-02</internalNodes>
          <leafValues>
            1.9211521744728088e-01 -4.0440744161605835e-01</leafValues></_>
        <_>
          <internalNodes>
            0 -1 1020 -5.8116664877161384e-04</internalNodes>
          <leafValues>
            1.6354766488075256e-01 -4.0527361631393433e-01</leafValues></_>
        <_>
          <internalNodes>
            0 -1 457 -5.2442341111600399e-03</internalNodes>
          <leafValues>
            1.9474843144416809e-01 -3.0034235119819641e-01</leafValues></_>
        <_>
          <internalNodes>
            0 -1 445 5.0576175563037395e-03</internalNodes>
          <leafValues>
            -3.0358207225799561e-01 1.7480668425559998e-01</leafValues></_>
        <_>
          <internalNodes>
            0 -1 1606 1.1972023639827967e-03</internalNodes>
          <leafValues>
            -2.6577627658843994e-01 1.5583424270153046e-01</leafValues></_>
        <_>
          <internalNodes>
            0 -1 1474 -4.0132529102265835e-03</internalNodes>
          <leafValues>
            -6.7569583654403687e-01 5.3841449320316315e-02</leafValues></_>
        <_>
          <internalNodes>
            0 -1 1487 -1.2978743761777878e-02</internalNodes>
          <leafValues>
            -6.7508333921432495e-01 3.4410938620567322e-02</leafValues></_>
        <_>
          <internalNodes>
            0 -1 1487 -8.3188939606770873e-04</internalNodes>
          <leafValues>
            1.5213371813297272e-01 -2.0618066191673279e-01</leafValues></_>
        <_>
          <internalNodes>
            0 -1 700 -3.3417120575904846e-02</internalNodes>
          <leafValues>
            -5.6072914600372314e-01 4.7028850764036179e-02</leafValues></_>
        <_>
          <internalNodes>
            0 -1 1541 6.9291610270738602e-03</internalNodes>
          <leafValues>
            2.8100559487938881e-02 -8.1309711933135986e-01</leafValues></_>
        <_>
          <internalNodes>
            0 -1 1540 -2.1992705296725035e-04</internalNodes>
          <leafValues>
            1.4317405223846436e-01 -2.1101066470146179e-01</leafValues></_>
        <_>
          <internalNodes>
            0 -1 840 -4.6673865290358663e-04</internalNodes>
          <leafValues>
            1.0433589667081833e-01 -2.6879081130027771e-01</leafValues></_>
        <_>
          <internalNodes>
            0 -1 624 5.0000275950878859e-04</internalNodes>
          <leafValues>
            -1.4694854617118835e-01 1.9225722551345825e-01</leafValues></_>
        <_>
          <internalNodes>
            0 -1 752 -4.4872395694255829e-02</internalNodes>
          <leafValues>
            -8.9820420742034912e-01 2.0940253511071205e-02</leafValues></_>
        <_>
          <internalNodes>
            0 -1 702 -3.5210950300097466e-03</internalNodes>
          <leafValues>
            2.3245698213577271e-01 -1.1774293333292007e-01</leafValues></_>
        <_>
          <internalNodes>
            0 -1 785 5.4003344848752022e-03</internalNodes>
          <leafValues>
            4.7480374574661255e-02 -7.7136433124542236e-01</leafValues></_>
        <_>
          <internalNodes>
            0 -1 1349 -4.2127701453864574e-04</internalNodes>
          <leafValues>
            9.1282427310943604e-02 -2.5165054202079773e-01</leafValues></_>
        <_>
          <internalNodes>
            0 -1 1009 -1.6395326238125563e-03</internalNodes>
          <leafValues>
            1.3803218305110931e-01 -1.6925609111785889e-01</leafValues></_>
        <_>
          <internalNodes>
            0 -1 1418 -1.1650936678051949e-02</internalNodes>
          <leafValues>
            -7.7875465154647827e-01 3.1646825373172760e-02</leafValues></_>
        <_>
          <internalNodes>
            0 -1 1106 -2.1441068500280380e-02</internalNodes>
          <leafValues>
            1.3834190368652344e-01 -1.7155998945236206e-01</leafValues></_>
        <_>
          <internalNodes>
            0 -1 1522 -8.2128820940852165e-03</internalNodes>
          <leafValues>
            -6.0800457000732422e-01 3.7559412419795990e-02</leafValues></_>
        <_>
          <internalNodes>
            0 -1 1369 4.3257686775177717e-04</internalNodes>
          <leafValues>
            -1.5125009417533875e-01 1.5215198695659637e-01</leafValues></_>
        <_>
          <internalNodes>
            0 -1 76 -1.1675499379634857e-01</internalNodes>
          <leafValues>
            3.0401048064231873e-01 -7.6580718159675598e-02</leafValues></_>
        <_>
          <internalNodes>
            0 -1 191 -2.3014019825495780e-04</internalNodes>
          <leafValues>
            8.2013666629791260e-02 -2.8013968467712402e-01</leafValues></_>
        <_>
          <internalNodes>
            0 -1 349 6.7508574575185776e-03</internalNodes>
          <leafValues>
            3.6149568855762482e-02 -6.2439209222793579e-01</leafValues></_>
        <_>
          <internalNodes>
            0 -1 652 -3.4709577448666096e-03</internalNodes>
          <leafValues>
            1.9117043912410736e-01 -1.1696127057075500e-01</leafValues></_>
        <_>
          <internalNodes>
            0 -1 1510 -2.0016264170408249e-02</internalNodes>
          <leafValues>
            -7.6312285661697388e-01 3.1432021409273148e-02</leafValues></_>
        <_>
          <internalNodes>
            0 -1 19 1.4960122108459473e-01</internalNodes>
          <leafValues>
            -5.6464921683073044e-02 4.7616943717002869e-01</leafValues></_>
        <_>
          <internalNodes>
            0 -1 633 -8.1107458099722862e-03</internalNodes>
          <leafValues>
            1.8511404097080231e-01 -1.1843840777873993e-01</leafValues></_>
        <_>
          <internalNodes>
            0 -1 622 2.4877578020095825e-02</internalNodes>
          <leafValues>
            -8.8112905621528625e-02 2.6347959041595459e-01</leafValues></_>
        <_>
          <internalNodes>
            0 -1 931 -3.2512620091438293e-03</internalNodes>
          <leafValues>
            -5.2261757850646973e-01 4.7649137675762177e-02</leafValues></_>
        <_>
          <internalNodes>
            0 -1 949 -2.4324636906385422e-02</internalNodes>
          <leafValues>
            1.6193148493766785e-01 -1.5432794392108917e-01</leafValues></_>
        <_>
          <internalNodes>
            0 -1 1309 -1.2983290478587151e-02</internalNodes>
          <leafValues>
            -5.8548790216445923e-01 3.9253894239664078e-02</leafValues></_>
        <_>
          <internalNodes>
            0 -1 586 -3.0425330623984337e-04</internalNodes>
          <leafValues>
            8.4016509354114532e-02 -2.4756842851638794e-01</leafValues></_>
        <_>
          <internalNodes>
            0 -1 1147 -2.7079593390226364e-02</internalNodes>
          <leafValues>
            1.9286850094795227e-01 -1.2084745615720749e-01</leafValues></_>
        <_>
          <internalNodes>
            0 -1 663 -3.4346955362707376e-03</internalNodes>
          <leafValues>
            1.8288274109363556e-01 -1.2184635549783707e-01</leafValues></_>
        <_>
          <internalNodes>
            0 -1 1 -4.8064487054944038e-04</internalNodes>
          <leafValues>
            1.7877122759819031e-01 -1.2661398947238922e-01</leafValues></_>
        <_>
          <internalNodes>
            0 -1 979 8.0206943675875664e-03</internalNodes>
          <leafValues>
            2.6482425630092621e-02 -9.0239900350570679e-01</leafValues></_>
        <_>
          <internalNodes>
            0 -1 1253 -2.9706081841140985e-04</internalNodes>
          <leafValues>
            1.1557435989379883e-01 -1.7907705903053284e-01</leafValues></_>
        <_>
          <internalNodes>
            0 -1 1072 2.1589742973446846e-03</internalNodes>
          <leafValues>
            6.9301187992095947e-02 -2.9069632291793823e-01</leafValues></_>
        <_>
          <internalNodes>
            0 -1 1240 -2.7572861872613430e-03</internalNodes>
          <leafValues>
            -2.0934945344924927e-01 1.0066259652376175e-01</leafValues></_>
        <_>
          <internalNodes>
            0 -1 1594 -1.6615462955087423e-03</internalNodes>
          <leafValues>
            3.0280825495719910e-01 -6.9446161389350891e-02</leafValues></_>
        <_>
          <internalNodes>
            0 -1 948 -7.7204802073538303e-03</internalNodes>
          <leafValues>
            -3.1919962167739868e-01 6.7052558064460754e-02</leafValues></_>
        <_>
          <internalNodes>
            0 -1 1019 5.2403062582015991e-03</internalNodes>
          <leafValues>
            -5.1059354096651077e-02 5.2811926603317261e-01</leafValues></_>
        <_>
          <internalNodes>
            0 -1 1476 -4.1068540886044502e-03</internalNodes>
          <leafValues>
            1.7208148539066315e-01 -1.1997523903846741e-01</leafValues></_>
        <_>
          <internalNodes>
            0 -1 319 9.9194124341011047e-03</internalNodes>
          <leafValues>
            2.5613365694880486e-02 -8.3158916234970093e-01</leafValues></_>
        <_>
          <internalNodes>
            0 -1 49 -6.8756714463233948e-03</internalNodes>
          <leafValues>
            1.5569455921649933e-01 -1.4672200381755829e-01</leafValues></_>
        <_>
          <internalNodes>
            0 -1 1629 -4.9841264262795448e-03</internalNodes>
          <leafValues>
            -4.3204215168952942e-01 4.6376306563615799e-02</leafValues></_>
        <_>
          <internalNodes>
            0 -1 1126 -5.3878892213106155e-03</internalNodes>
          <leafValues>
            1.9914703071117401e-01 -1.0356443375349045e-01</leafValues></_>
        <_>
          <internalNodes>
            0 -1 966 -1.6017057001590729e-02</internalNodes>
          <leafValues>
            -7.7201569080352783e-01 2.6295721530914307e-02</leafValues></_>
        <_>
          <internalNodes>
            0 -1 297 1.5211808495223522e-03</internalNodes>
          <leafValues>
            -1.0070721060037613e-01 2.1347820758819580e-01</leafValues></_>
        <_>
          <internalNodes>
            0 -1 263 1.2664130888879299e-02</internalNodes>
          <leafValues>
            3.1485456973314285e-02 -7.0206576585769653e-01</leafValues></_></weakClassifiers></_>
    <!-- stage 6 -->
    <_>
      <maxWeakCount>88</maxWeakCount>
      <stageThreshold>-2.0245220661163330e+00</stageThreshold>
      <weakClassifiers>
        <_>
          <internalNodes>
            0 -1 684 -8.2898989319801331e-02</internalNodes>
          <leafValues>
            7.3145247995853424e-02 -6.3969284296035767e-01</leafValues></_>
        <_>
          <internalNodes>
            0 -1 205 -1.6162210702896118e-01</internalNodes>
          <leafValues>
            2.1783339977264404e-01 -5.8576071262359619e-01</leafValues></_>
        <_>
          <internalNodes>
            0 -1 345 -1.6299362480640411e-01</internalNodes>
          <leafValues>
            2.0951648056507111e-01 -5.3931891918182373e-01</leafValues></_>
        <_>
          <internalNodes>
            0 -1 501 -3.7706408649682999e-02</internalNodes>
          <leafValues>
            2.3413798213005066e-01 -3.9579746127128601e-01</leafValues></_>
        <_>
          <internalNodes>
            0 -1 1500 3.1109788687899709e-04</internalNodes>
          <leafValues>
            -3.9997842907905579e-01 1.6468326747417450e-01</leafValues></_>
        <_>
          <internalNodes>
            0 -1 1017 -3.4697446972131729e-02</internalNodes>
          <leafValues>
            1.1326691508293152e-01 -3.2903543114662170e-01</leafValues></_>
        <_>
          <internalNodes>
            0 -1 1035 -2.4954341351985931e-03</internalNodes>
          <leafValues>
            1.1720545589923859e-01 -4.4613796472549438e-01</leafValues></_>
        <_>
          <internalNodes>
            0 -1 328 -2.6072226464748383e-02</internalNodes>
          <leafValues>
            1.9728085398674011e-01 -2.3458732664585114e-01</leafValues></_>
        <_>
          <internalNodes>
            0 -1 796 -3.0743923038244247e-02</internalNodes>
          <leafValues>
            2.6523616909980774e-01 -1.3659906387329102e-01</leafValues></_>
        <_>
          <internalNodes>
            0 -1 1173 -6.9359135814011097e-03</internalNodes>
          <leafValues>
            -6.7296242713928223e-01 1.9722564145922661e-02</leafValues></_>
        <_>
          <internalNodes>
            0 -1 1113 -3.0607301741838455e-02</internalNodes>
          <leafValues>
            -5.4212552309036255e-01 4.4510569423437119e-02</leafValues></_>
        <_>
          <internalNodes>
            0 -1 127 -2.6232201606035233e-02</internalNodes>
          <leafValues>
            -6.0164302587509155e-01 3.6402996629476547e-02</leafValues></_>
        <_>
          <internalNodes>
            0 -1 772 -4.5864386484026909e-03</internalNodes>
          <leafValues>
            -6.8976038694381714e-01 2.8997587040066719e-02</leafValues></_>
        <_>
          <internalNodes>
            0 -1 1529 -3.3074053935706615e-03</internalNodes>
          <leafValues>
            1.6249635815620422e-01 -1.4985463023185730e-01</leafValues></_>
        <_>
          <internalNodes>
            0 -1 1546 -8.6016384884715080e-03</internalNodes>
          <leafValues>
            -6.7832821607589722e-01 5.9906020760536194e-02</leafValues></_>
        <_>
          <internalNodes>
            0 -1 1215 -1.5575879253447056e-02</internalNodes>
          <leafValues>
            7.6089046895503998e-02 -2.6774078607559204e-01</leafValues></_>
        <_>
          <internalNodes>
            0 -1 1633 -1.0247908532619476e-02</internalNodes>
          <leafValues>
            -7.2322589159011841e-01 3.3146824687719345e-02</leafValues></_>
        <_>
          <internalNodes>
            0 -1 923 -4.9134652363136411e-04</internalNodes>
          <leafValues>
            7.4992254376411438e-02 -2.4210315942764282e-01</leafValues></_>
        <_>
          <internalNodes>
            0 -1 1501 -4.8242814955301583e-04</internalNodes>
          <leafValues>
            1.7694014310836792e-01 -1.2297555059194565e-01</leafValues></_>
        <_>
          <internalNodes>
            0 -1 1366 -4.7712505329400301e-04</internalNodes>
          <leafValues>
            1.3170175254344940e-01 -1.7527650296688080e-01</leafValues></_>
        <_>
          <internalNodes>
            0 -1 239 -2.2579938173294067e-02</internalNodes>
          <leafValues>
            -6.8692106008529663e-01 2.1047793328762054e-02</leafValues></_>
        <_>
          <internalNodes>
            0 -1 1332 -4.2507600039243698e-02</internalNodes>
          <leafValues>
            -7.0817846059799194e-01 2.5073079392313957e-02</leafValues></_>
        <_>
          <internalNodes>
            0 -1 296 -3.8113433402031660e-03</internalNodes>
          <leafValues>
            1.5905532240867615e-01 -1.3434284925460815e-01</leafValues></_>
        <_>
          <internalNodes>
            0 -1 925 1.0805977508425713e-02</internalNodes>
          <leafValues>
            5.5772807449102402e-02 -4.2739337682723999e-01</leafValues></_>
        <_>
          <internalNodes>
            0 -1 331 -2.0329281687736511e-02</internalNodes>
          <leafValues>
            -6.3252961635589600e-01 2.8234301134943962e-02</leafValues></_>
        <_>
          <internalNodes>
            0 -1 160 -1.6192089766263962e-02</internalNodes>
          <leafValues>
            9.4736933708190918e-02 -1.9050872325897217e-01</leafValues></_>
        <_>
          <internalNodes>
            0 -1 407 -1.3017395511269569e-02</internalNodes>
          <leafValues>
            -4.4540834426879883e-01 4.5071337372064590e-02</leafValues></_>
        <_>
          <internalNodes>
            0 -1 599 -1.0533353686332703e-01</internalNodes>
          <leafValues>
            2.4154943227767944e-01 -7.8157991170883179e-02</leafValues></_>
        <_>
          <internalNodes>
            0 -1 147 -2.1339442580938339e-02</internalNodes>
          <leafValues>
            2.1544003486633301e-01 -1.1084057390689850e-01</leafValues></_>
        <_>
          <internalNodes>
            0 -1 1575 4.8183783655986190e-04</internalNodes>
          <leafValues>
            -1.0160941630601883e-01 1.9717407226562500e-01</leafValues></_>
        <_>
          <internalNodes>
            0 -1 659 -7.3512084782123566e-03</internalNodes>
          <leafValues>
            -5.3840583562850952e-01 3.9870224893093109e-02</leafValues></_>
        <_>
          <internalNodes>
            0 -1 1511 -2.1117874421179295e-03</internalNodes>
          <leafValues>
            1.4697828888893127e-01 -1.2370526790618896e-01</leafValues></_>
        <_>
          <internalNodes>
            0 -1 384 -1.6473643481731415e-02</internalNodes>
          <leafValues>
            -7.6920241117477417e-01 2.3830341175198555e-02</leafValues></_>
        <_>
          <internalNodes>
            0 -1 238 -7.8545603901147842e-03</internalNodes>
          <leafValues>
            2.7544310688972473e-01 -7.0004150271415710e-02</leafValues></_>
        <_>
          <internalNodes>
            0 -1 1095 4.0028048679232597e-03</internalNodes>
          <leafValues>
            5.4047234356403351e-02 -3.5591509938240051e-01</leafValues></_>
        <_>
          <internalNodes>
            0 -1 1434 -4.3516361620277166e-04</internalNodes>
          <leafValues>
            1.2369533628225327e-01 -1.5766616165637970e-01</leafValues></_>
        <_>
          <internalNodes>
            0 -1 1167 5.2413888275623322e-02</internalNodes>
          <leafValues>
            -5.1138106733560562e-02 3.7945511937141418e-01</leafValues></_>
        <_>
          <internalNodes>
            0 -1 1424 -2.5304886512458324e-03</internalNodes>
          <leafValues>
            9.7721375524997711e-02 -2.1626318991184235e-01</leafValues></_>
        <_>
          <internalNodes>
            0 -1 964 -6.2837703153491020e-03</internalNodes>
          <leafValues>
            -4.7980138659477234e-01 3.3725414425134659e-02</leafValues></_>
        <_>
          <internalNodes>
            0 -1 1564 -6.1696593184024096e-04</internalNodes>
          <leafValues>
            1.3500866293907166e-01 -1.2537014484405518e-01</leafValues></_>
        <_>
          <internalNodes>
            0 -1 1489 1.6590747982263565e-02</internalNodes>
          <leafValues>
            -5.6145112961530685e-02 3.5092163085937500e-01</leafValues></_>
        <_>
          <internalNodes>
            0 -1 1634 -8.4344446659088135e-03</internalNodes>
          <leafValues>
            -6.3394159078598022e-01 3.1031232327222824e-02</leafValues></_>
        <_>
          <internalNodes>
            0 -1 221 2.8337506577372551e-02</internalNodes>
          <leafValues>
            2.8235342353582382e-02 -5.7624363899230957e-01</leafValues></_>
        <_>
          <internalNodes>
            0 -1 524 -4.5294249430298805e-03</internalNodes>
          <leafValues>
            6.2394578009843826e-02 -2.9569745063781738e-01</leafValues></_>
        <_>
          <internalNodes>
            0 -1 246 7.8954763710498810e-02</internalNodes>
          <leafValues>
            -4.1623886674642563e-02 4.5677557587623596e-01</leafValues></_>
        <_>
          <internalNodes>
            0 -1 1304 -1.0948764160275459e-02</internalNodes>
          <leafValues>
            -8.0310714244842529e-01 2.2400679066777229e-02</leafValues></_>
        <_>
          <internalNodes>
            0 -1 44 5.8602723293006420e-03</internalNodes>
          <leafValues>
            -6.5444841980934143e-02 2.7398112416267395e-01</leafValues></_>
        <_>
          <internalNodes>
            0 -1 219 3.8449787534773350e-03</internalNodes>
          <leafValues>
            -9.1927118599414825e-02 1.8603126704692841e-01</leafValues></_>
        <_>
          <internalNodes>
            0 -1 801 -1.0697743855416775e-02</internalNodes>
          <leafValues>
            -8.1428509950637817e-01 2.2160332649946213e-02</leafValues></_>
        <_>
          <internalNodes>
            0 -1 1389 3.2777891028672457e-03</internalNodes>
          <leafValues>
            3.4084334969520569e-02 -4.6880304813385010e-01</leafValues></_>
        <_>
          <internalNodes>
            0 -1 103 4.9687316641211510e-04</internalNodes>
          <leafValues>
            -9.6822172403335571e-02 1.8935234844684601e-01</leafValues></_>
        <_>
          <internalNodes>
            0 -1 1101 -2.5552723091095686e-03</internalNodes>
          <leafValues>
            1.2133097648620605e-01 -1.4359912276268005e-01</leafValues></_>
        <_>
          <internalNodes>
            0 -1 571 -7.7235838398337364e-03</internalNodes>
          <leafValues>
            -6.2157624959945679e-01 2.4230306968092918e-02</leafValues></_>
        <_>
          <internalNodes>
            0 -1 681 6.2411628663539886e-02</internalNodes>
          <leafValues>
            -3.9343617856502533e-02 5.5439394712448120e-01</leafValues></_>
        <_>
          <internalNodes>
            0 -1 169 8.2084385212510824e-04</internalNodes>
          <leafValues>
            -8.8960610330104828e-02 1.8814943730831146e-01</leafValues></_>
        <_>
          <internalNodes>
            0 -1 1388 -9.3309825751930475e-04</internalNodes>
          <leafValues>
            -2.8646609187126160e-01 6.1215911060571671e-02</leafValues></_>
        <_>
          <internalNodes>
            0 -1 1284 -1.4227909967303276e-02</internalNodes>
          <leafValues>
            1.3970635831356049e-01 -1.2845300137996674e-01</leafValues></_>
        <_>
          <internalNodes>
            0 -1 1600 1.8285907804965973e-02</internalNodes>
          <leafValues>
            2.0611148327589035e-02 -8.0806034803390503e-01</leafValues></_>
        <_>
          <internalNodes>
            0 -1 433 -9.6251629292964935e-03</internalNodes>
          <leafValues>
            1.2283679842948914e-01 -1.4042226970195770e-01</leafValues></_>
        <_>
          <internalNodes>
            0 -1 548 -2.8377983719110489e-02</internalNodes>
          <leafValues>
            -6.6943132877349854e-01 2.5442540645599365e-02</leafValues></_>
        <_>
          <internalNodes>
            0 -1 1288 -3.3936876570805907e-04</internalNodes>
          <leafValues>
            1.0733886063098907e-01 -1.5536960959434509e-01</leafValues></_>
        <_>
          <internalNodes>
            0 -1 1084 -6.8009709939360619e-03</internalNodes>
          <leafValues>
            -4.7268798947334290e-01 3.0550783500075340e-02</leafValues></_>
        <_>
          <internalNodes>
            0 -1 1268 4.3695792555809021e-02</internalNodes>
          <leafValues>
            -4.1498314589262009e-02 4.5070829987525940e-01</leafValues></_>
        <_>
          <internalNodes>
            0 -1 1104 -2.4429830955341458e-04</internalNodes>
          <leafValues>
            1.1845525354146957e-01 -1.4667963981628418e-01</leafValues></_>
        <_>
          <internalNodes>
            0 -1 251 -2.6443114038556814e-03</internalNodes>
          <leafValues>
            1.7961739003658295e-01 -8.5596077144145966e-02</leafValues></_>
        <_>
          <internalNodes>
            0 -1 1066 5.4175565019249916e-03</internalNodes>
          <leafValues>
            8.6783856153488159e-02 -1.6932477056980133e-01</leafValues></_>
        <_>
          <internalNodes>
            0 -1 782 2.6190329343080521e-02</internalNodes>
          <leafValues>
            -5.0553970038890839e-02 3.4132769703865051e-01</leafValues></_>
        <_>
          <internalNodes>
            0 -1 425 -1.8607436213642359e-03</internalNodes>
          <leafValues>
            -2.1247726678848267e-01 6.9419145584106445e-02</leafValues></_>
        <_>
          <internalNodes>
            0 -1 536 4.7511078417301178e-02</internalNodes>
          <leafValues>
            -3.2266128808259964e-02 5.2974230051040649e-01</leafValues></_>
        <_>
          <internalNodes>
            0 -1 1006 -5.3691241191700101e-04</internalNodes>
          <leafValues>
            7.9740762710571289e-02 -1.9235567748546600e-01</leafValues></_>
        <_>
          <internalNodes>
            0 -1 813 -2.2738173604011536e-02</internalNodes>
          <leafValues>
            -7.4658936262130737e-01 1.8468147143721581e-02</leafValues></_>
        <_>
          <internalNodes>
            0 -1 40 5.0741480663418770e-04</internalNodes>
          <leafValues>
            -8.4586992859840393e-02 1.6788101196289063e-01</leafValues></_>
        <_>
          <internalNodes>
            0 -1 1055 -4.3514873832464218e-03</internalNodes>
          <leafValues>
            -6.0010319948196411e-01 2.6242325082421303e-02</leafValues></_>
        <_>
          <internalNodes>
            0 -1 1639 7.0187095552682877e-03</internalNodes>
          <leafValues>
            2.5419663637876511e-02 -4.6035569906234741e-01</leafValues></_>
        <_>
          <internalNodes>
            0 -1 435 -7.2508235462009907e-03</internalNodes>
          <leafValues>
            1.5610072016716003e-01 -8.8233821094036102e-02</leafValues></_>
        <_>
          <internalNodes>
            0 -1 1326 -5.2717407234013081e-03</internalNodes>
          <leafValues>
            -6.0677248239517212e-01 2.3007923737168312e-02</leafValues></_>
        <_>
          <internalNodes>
            0 -1 1067 1.0548273101449013e-02</internalNodes>
          <leafValues>
            1.9002746790647507e-02 -6.2479829788208008e-01</leafValues></_>
        <_>
          <internalNodes>
            0 -1 419 8.6760241538286209e-03</internalNodes>
          <leafValues>
            1.2969347648322582e-02 -8.0853223800659180e-01</leafValues></_>
        <_>
          <internalNodes>
            0 -1 42 -5.7499865069985390e-03</internalNodes>
          <leafValues>
            1.9850297272205353e-01 -7.1640394628047943e-02</leafValues></_>
        <_>
          <internalNodes>
            0 -1 71 1.3107994571328163e-02</internalNodes>
          <leafValues>
            2.8105644509196281e-02 -5.5484902858734131e-01</leafValues></_>
        <_>
          <internalNodes>
            0 -1 622 2.2198509424924850e-02</internalNodes>
          <leafValues>
            -7.4072636663913727e-02 2.0183436572551727e-01</leafValues></_>
        <_>
          <internalNodes>
            0 -1 1540 -2.4784423294477165e-04</internalNodes>
          <leafValues>
            1.1324790120124817e-01 -1.3608251512050629e-01</leafValues></_>
        <_>
          <internalNodes>
            0 -1 1493 3.0308287590742111e-02</internalNodes>
          <leafValues>
            2.7254050597548485e-02 -5.2963733673095703e-01</leafValues></_>
        <_>
          <internalNodes>
            0 -1 449 -4.8703053034842014e-03</internalNodes>
          <leafValues>
            1.2324226647615433e-01 -1.1366817355155945e-01</leafValues></_>
        <_>
          <internalNodes>
            0 -1 1350 3.3192208502441645e-03</internalNodes>
          <leafValues>
            -4.0663797408342361e-02 3.2095390558242798e-01</leafValues></_>
        <_>
          <internalNodes>
            0 -1 1155 -3.7123652873560786e-04</internalNodes>
          <leafValues>
            1.2914520502090454e-01 -1.1995817720890045e-01</leafValues></_>
        <_>
          <internalNodes>
            0 -1 1174 2.9244762845337391e-03</internalNodes>
          <leafValues>
            3.6896463483572006e-02 -3.5987225174903870e-01</leafValues></_>
        <_>
          <internalNodes>
            0 -1 1359 4.2001511901617050e-03</internalNodes>
          <leafValues>
            -8.6496196687221527e-02 1.7132316529750824e-01</leafValues></_></weakClassifiers></_>
    <!-- stage 7 -->
    <_>
      <maxWeakCount>100</maxWeakCount>
      <stageThreshold>-2.0904407501220703e+00</stageThreshold>
      <weakClassifiers>
        <_>
          <internalNodes>
            0 -1 485 -5.7321423292160034e-01</internalNodes>
          <leafValues>
            -2.3006478324532509e-02 -6.4695256948471069e-01</leafValues></_>
        <_>
          <internalNodes>
            0 -1 54 -5.4092645645141602e-01</internalNodes>
          <leafValues>
            3.1021979451179504e-01 -5.0843995809555054e-01</leafValues></_>
        <_>
          <internalNodes>
            0 -1 781 -2.7681507170200348e-02</internalNodes>
          <leafValues>
            1.7066963016986847e-01 -3.5732176899909973e-01</leafValues></_>
        <_>
          <internalNodes>
            0 -1 1153 -3.8978099822998047e-02</internalNodes>
          <leafValues>
            1.7338903248310089e-01 -4.2326101660728455e-01</leafValues></_>
        <_>
          <internalNodes>
            0 -1 998 -2.0621186122298241e-02</internalNodes>
          <leafValues>
            1.4608821272850037e-01 -3.9384996891021729e-01</leafValues></_>
        <_>
          <internalNodes>
            0 -1 352 -2.9683937318623066e-03</internalNodes>
          <leafValues>
            1.5871606767177582e-01 -2.5504526495933533e-01</leafValues></_>
        <_>
          <internalNodes>
            0 -1 595 -1.1101117357611656e-02</internalNodes>
          <leafValues>
            1.1637844145298004e-01 -3.2326045632362366e-01</leafValues></_>
        <_>
          <internalNodes>
            0 -1 394 3.5069119185209274e-03</internalNodes>
          <leafValues>
            7.4137464165687561e-02 -4.8976296186447144e-01</leafValues></_>
        <_>
          <internalNodes>
            0 -1 1208 -1.0752756148576736e-02</internalNodes>
          <leafValues>
            1.3749383389949799e-01 -2.2729772329330444e-01</leafValues></_>
        <_>
          <internalNodes>
            0 -1 1402 2.9075467027723789e-03</internalNodes>
          <leafValues>
            8.4469318389892578e-02 -2.9024228453636169e-01</leafValues></_>
        <_>
          <internalNodes>
            0 -1 1494 -2.0311724394559860e-02</internalNodes>
          <leafValues>
            -5.9992367029190063e-01 3.3932864665985107e-02</leafValues></_>
        <_>
          <internalNodes>
            0 -1 740 -3.6112893372774124e-02</internalNodes>
          <leafValues>
            -6.2034910917282104e-01 2.8544809669256210e-02</leafValues></_>
        <_>
          <internalNodes>
            0 -1 312 -3.0687469989061356e-02</internalNodes>
          <leafValues>
            1.3991256058216095e-01 -1.5272319316864014e-01</leafValues></_>
        <_>
          <internalNodes>
            0 -1 364 -3.6369673907756805e-02</internalNodes>
          <leafValues>
            -5.4722690582275391e-01 3.7501126527786255e-02</leafValues></_>
        <_>
          <internalNodes>
            0 -1 1175 -8.1828772090375423e-04</internalNodes>
          <leafValues>
            5.9450909495353699e-02 -3.2938125729560852e-01</leafValues></_>
        <_>
          <internalNodes>
            0 -1 1203 -4.7329314053058624e-02</internalNodes>
          <leafValues>
            -8.1137734651565552e-01 1.0308847995474935e-03</leafValues></_>
        <_>
          <internalNodes>
            0 -1 939 -7.6889065094292164e-03</internalNodes>
          <leafValues>
            7.1003966033458710e-02 -2.5327399373054504e-01</leafValues></_>
        <_>
          <internalNodes>
            0 -1 1391 3.5777976736426353e-03</internalNodes>
          <leafValues>
            3.9935119450092316e-02 -4.4803243875503540e-01</leafValues></_>
        <_>
          <internalNodes>
            0 -1 1525 -2.8422800824046135e-03</internalNodes>
          <leafValues>
            1.9560000300407410e-01 -9.1198310256004333e-02</leafValues></_>
        <_>
          <internalNodes>
            0 -1 1523 -7.9154092818498611e-03</internalNodes>
          <leafValues>
            -5.5554276704788208e-01 2.4885000661015511e-02</leafValues></_>
        <_>
          <internalNodes>
            0 -1 1410 -2.8289828915148973e-03</internalNodes>
          <leafValues>
            1.7827171087265015e-01 -8.7813094258308411e-02</leafValues></_>
        <_>
          <internalNodes>
            0 -1 433 -8.1628356128931046e-03</internalNodes>
          <leafValues>
            1.2162578850984573e-01 -1.3443824648857117e-01</leafValues></_>
        <_>
          <internalNodes>
            0 -1 1254 6.3554365187883377e-03</internalNodes>
          <leafValues>
            4.9160886555910110e-02 -2.8902578353881836e-01</leafValues></_>
        <_>
          <internalNodes>
            0 -1 1094 1.0138462483882904e-01</internalNodes>
          <leafValues>
            -4.8742547631263733e-02 3.6096858978271484e-01</leafValues></_>
        <_>
          <internalNodes>
            0 -1 1012 -6.8133900640532374e-04</internalNodes>
          <leafValues>
            8.6532428860664368e-02 -2.1525771915912628e-01</leafValues></_>
        <_>
          <internalNodes>
            0 -1 609 -4.5711938291788101e-03</internalNodes>
          <leafValues>
            -6.2233489751815796e-01 1.9076401367783546e-02</leafValues></_>
        <_>
          <internalNodes>
            0 -1 974 -4.1847024112939835e-04</internalNodes>
          <leafValues>
            1.0028747469186783e-01 -1.5649771690368652e-01</leafValues></_>
        <_>
          <internalNodes>
            0 -1 978 -6.1920434236526489e-03</internalNodes>
          <leafValues>
            -4.1634488105773926e-01 4.0890231728553772e-02</leafValues></_>
        <_>
          <internalNodes>
            0 -1 605 -1.9492290914058685e-02</internalNodes>
          <leafValues>
            -2.4870772659778595e-01 5.2203636616468430e-02</leafValues></_>
        <_>
          <internalNodes>
            0 -1 689 1.1297337710857391e-01</internalNodes>
          <leafValues>
            -3.8554418832063675e-02 3.7332364916801453e-01</leafValues></_>
        <_>
          <internalNodes>
            0 -1 1171 -9.5839990535750985e-04</internalNodes>
          <leafValues>
            1.4711482822895050e-01 -1.1931706219911575e-01</leafValues></_>
        <_>
          <internalNodes>
            0 -1 876 1.2394371442496777e-02</internalNodes>
          <leafValues>
            2.0138597115874290e-02 -5.5954897403717041e-01</leafValues></_>
        <_>
          <internalNodes>
            0 -1 1627 -1.2110661715269089e-02</internalNodes>
          <leafValues>
            -8.5192269086837769e-01 1.2856883928179741e-02</leafValues></_>
        <_>
          <internalNodes>
            0 -1 1447 -4.8531510401517153e-04</internalNodes>
          <leafValues>
            5.4736450314521790e-02 -2.1937687695026398e-01</leafValues></_>
        <_>
          <internalNodes>
            0 -1 1605 6.7516928538680077e-03</internalNodes>
          <leafValues>
            1.6644714400172234e-02 -6.9266581535339355e-01</leafValues></_>
        <_>
          <internalNodes>
            0 -1 1463 5.3473226726055145e-02</internalNodes>
          <leafValues>
            -1.9075682386755943e-02 7.1685659885406494e-01</leafValues></_>
        <_>
          <internalNodes>
            0 -1 182 -2.8059268370270729e-02</internalNodes>
          <leafValues>
            -6.5848135948181152e-01 1.9897870719432831e-02</leafValues></_>
        <_>
          <internalNodes>
            0 -1 182 -1.3785075861960649e-03</internalNodes>
          <leafValues>
            9.5675416290760040e-02 -1.2891265749931335e-01</leafValues></_>
        <_>
          <internalNodes>
            0 -1 2 -4.7770517994649708e-04</internalNodes>
          <leafValues>
            1.2835717201232910e-01 -9.9510528147220612e-02</leafValues></_>
        <_>
          <internalNodes>
            0 -1 1341 -6.0540358535945415e-03</internalNodes>
          <leafValues>
            -6.7898792028427124e-01 1.7855897545814514e-02</leafValues></_>
        <_>
          <internalNodes>
            0 -1 773 2.3336466401815414e-02</internalNodes>
          <leafValues>
            1.8886480480432510e-02 -5.4025125503540039e-01</leafValues></_>
        <_>
          <internalNodes>
            0 -1 1150 8.4527239203453064e-02</internalNodes>
          <leafValues>
            -3.7249717861413956e-02 3.6676514148712158e-01</leafValues></_>
        <_>
          <internalNodes>
            0 -1 704 -8.9316934347152710e-02</internalNodes>
          <leafValues>
            -3.4325659275054932e-01 3.8334332406520844e-02</leafValues></_>
        <_>
          <internalNodes>
            0 -1 75 1.6486930847167969e-01</internalNodes>
          <leafValues>
            -2.9870357364416122e-02 4.5802041888237000e-01</leafValues></_>
        <_>
          <internalNodes>
            0 -1 299 -3.0170253012329340e-03</internalNodes>
          <leafValues>
            1.4115343987941742e-01 -1.0719121992588043e-01</leafValues></_>
        <_>
          <internalNodes>
            0 -1 366 -8.6225941777229309e-03</internalNodes>
          <leafValues>
            -6.1162292957305908e-01 2.1870728582143784e-02</leafValues></_>
        <_>
          <internalNodes>
            0 -1 170 2.8927745297551155e-03</internalNodes>
          <leafValues>
            -8.1310607492923737e-02 1.5440887212753296e-01</leafValues></_>
        <_>
          <internalNodes>
            0 -1 197 -6.3646107446402311e-04</internalNodes>
          <leafValues>
            1.4971965551376343e-01 -7.9626947641372681e-02</leafValues></_>
        <_>
          <internalNodes>
            0 -1 398 -8.0869365483522415e-03</internalNodes>
          <leafValues>
            -5.7995307445526123e-01 2.2426180541515350e-02</leafValues></_>
        <_>
          <internalNodes>
            0 -1 964 -9.5513351261615753e-03</internalNodes>
          <leafValues>
            -7.7256458997726440e-01 1.1493663303554058e-02</leafValues></_>
        <_>
          <internalNodes>
            0 -1 1128 -6.9228038191795349e-03</internalNodes>
          <leafValues>
            -4.6034750342369080e-01 2.0343612879514694e-02</leafValues></_>
        <_>
          <internalNodes>
            0 -1 994 -4.0133833885192871e-02</internalNodes>
          <leafValues>
            1.5902353823184967e-01 -7.8293949365615845e-02</leafValues></_>
        <_>
          <internalNodes>
            0 -1 720 1.0057664476335049e-03</internalNodes>
          <leafValues>
            7.1623966097831726e-02 -1.9188383221626282e-01</leafValues></_>
        <_>
          <internalNodes>
            0 -1 1530 8.7711125612258911e-02</internalNodes>
          <leafValues>
            1.2783073820173740e-02 -8.4084802865982056e-01</leafValues></_>
        <_>
          <internalNodes>
            0 -1 1472 -4.7966197598725557e-04</internalNodes>
          <leafValues>
            1.0451170057058334e-01 -1.1186793446540833e-01</leafValues></_>
        <_>
          <internalNodes>
            0 -1 249 -9.6201384440064430e-04</internalNodes>
          <leafValues>
            1.4271648228168488e-01 -8.1918537616729736e-02</leafValues></_>
        <_>
          <internalNodes>
            0 -1 487 -9.5835812389850616e-03</internalNodes>
          <leafValues>
            -5.8636277914047241e-01 1.8507724627852440e-02</leafValues></_>
        <_>
          <internalNodes>
            0 -1 1589 -1.2523594778031111e-03</internalNodes>
          <leafValues>
            2.1137914061546326e-01 -5.3090892732143402e-02</leafValues></_>
        <_>
          <internalNodes>
            0 -1 770 -8.7443087249994278e-03</internalNodes>
          <leafValues>
            -6.2514805793762207e-01 1.9222216680645943e-02</leafValues></_>
        <_>
          <internalNodes>
            0 -1 928 3.5374738276004791e-02</internalNodes>
          <leafValues>
            7.2060888633131981e-03 -1.</leafValues></_>
        <_>
          <internalNodes>
            0 -1 1401 -1.1048757471144199e-02</internalNodes>
          <leafValues>
            -2.8001379966735840e-01 3.2768089324235916e-02</leafValues></_>
        <_>
          <internalNodes>
            0 -1 642 -2.0348604768514633e-02</internalNodes>
          <leafValues>
            3.4166324138641357e-01 -3.5283040255308151e-02</leafValues></_>
        <_>
          <internalNodes>
            0 -1 1254 -2.3496886715292931e-03</internalNodes>
          <leafValues>
            -2.2554109990596771e-01 6.0181286185979843e-02</leafValues></_>
        <_>
          <internalNodes>
            0 -1 1247 -2.5890434160828590e-02</internalNodes>
          <leafValues>
            1.1528636515140533e-01 -1.2226535379886627e-01</leafValues></_>
        <_>
          <internalNodes>
            0 -1 1484 -8.4328111261129379e-03</internalNodes>
          <leafValues>
            1.5860581398010254e-01 -8.3194777369499207e-02</leafValues></_>
        <_>
          <internalNodes>
            0 -1 448 -6.3097537495195866e-03</internalNodes>
          <leafValues>
            -3.6426192522048950e-01 3.0836647376418114e-02</leafValues></_>
        <_>
          <internalNodes>
            0 -1 419 -6.0548831243067980e-04</internalNodes>
          <leafValues>
            1.6980016231536865e-01 -7.2707735002040863e-02</leafValues></_>
        <_>
          <internalNodes>
            0 -1 610 -3.2691558590158820e-04</internalNodes>
          <leafValues>
            1.0329525172710419e-01 -1.3154514133930206e-01</leafValues></_>
        <_>
          <internalNodes>
            0 -1 1466 6.3614528626203537e-03</internalNodes>
          <leafValues>
            1.5523715876042843e-02 -6.1695426702499390e-01</leafValues></_>
        <_>
          <internalNodes>
            0 -1 955 -1.2861201539635658e-02</internalNodes>
          <leafValues>
            -4.0326979756355286e-01 2.5571480393409729e-02</leafValues></_>
        <_>
          <internalNodes>
            0 -1 828 -4.2453128844499588e-04</internalNodes>
          <leafValues>
            1.5617305040359497e-01 -7.6188631355762482e-02</leafValues></_>
        <_>
          <internalNodes>
            0 -1 828 4.2075495002791286e-04</internalNodes>
          <leafValues>
            -1.1596093326807022e-01 1.2422768026590347e-01</leafValues></_>
        <_>
          <internalNodes>
            0 -1 1511 4.5575904659926891e-03</internalNodes>
          <leafValues>
            -4.5076474547386169e-02 2.5864067673683167e-01</leafValues></_>
        <_>
          <internalNodes>
            0 -1 1327 -1.4530014246702194e-02</internalNodes>
          <leafValues>
            -5.2552145719528198e-01 2.0735330879688263e-02</leafValues></_>
        <_>
          <internalNodes>
            0 -1 1505 2.8069848194718361e-02</internalNodes>
          <leafValues>
            1.3672665692865849e-02 -7.1823769807815552e-01</leafValues></_>
        <_>
          <internalNodes>
            0 -1 133 8.0222007818520069e-04</internalNodes>
          <leafValues>
            6.3823424279689789e-02 -1.6611674427986145e-01</leafValues></_>
        <_>
          <internalNodes>
            0 -1 724 -5.0986241549253464e-02</internalNodes>
          <leafValues>
            -1.8213383853435516e-01 7.2221226990222931e-02</leafValues></_>
        <_>
          <internalNodes>
            0 -1 528 2.0673185586929321e-02</internalNodes>
          <leafValues>
            4.1997306048870087e-02 -2.9451820254325867e-01</leafValues></_>
        <_>
          <internalNodes>
            0 -1 243 -4.9947542138397694e-03</internalNodes>
          <leafValues>
            1.3371001183986664e-01 -8.5355930030345917e-02</leafValues></_>
        <_>
          <internalNodes>
            0 -1 965 -9.6178539097309113e-03</internalNodes>
          <leafValues>
            -5.5643022060394287e-01 2.3278754204511642e-02</leafValues></_>
        <_>
          <internalNodes>
            0 -1 323 1.2011645361781120e-02</internalNodes>
          <leafValues>
            2.0888773724436760e-02 -5.1720213890075684e-01</leafValues></_>
        <_>
          <internalNodes>
            0 -1 172 1.1240941472351551e-02</internalNodes>
          <leafValues>
            -5.8888055384159088e-02 1.8428426980972290e-01</leafValues></_>
        <_>
          <internalNodes>
            0 -1 69 -2.2733651101589203e-02</internalNodes>
          <leafValues>
            -4.5708724856376648e-01 2.7681279927492142e-02</leafValues></_>
        <_>
          <internalNodes>
            0 -1 430 -4.8829161096364260e-04</internalNodes>
          <leafValues>
            1.6717356443405151e-01 -7.4563100934028625e-02</leafValues></_>
        <_>
          <internalNodes>
            0 -1 250 -8.1941462121903896e-04</internalNodes>
          <leafValues>
            1.2575045228004456e-01 -8.3091780543327332e-02</leafValues></_>
        <_>
          <internalNodes>
            0 -1 604 1.0414405167102814e-01</internalNodes>
          <leafValues>
            5.5784501135349274e-02 -2.0677770674228668e-01</leafValues></_>
        <_>
          <internalNodes>
            0 -1 1269 3.7008211947977543e-03</internalNodes>
          <leafValues>
            -8.9327894151210785e-02 1.5973697602748871e-01</leafValues></_>
        <_>
          <internalNodes>
            0 -1 1252 -4.2762650991789997e-04</internalNodes>
          <leafValues>
            8.8319659233093262e-02 -1.5538191795349121e-01</leafValues></_>
        <_>
          <internalNodes>
            0 -1 1308 9.1839097440242767e-03</internalNodes>
          <leafValues>
            1.3942531310021877e-02 -8.1302386522293091e-01</leafValues></_>
        <_>
          <internalNodes>
            0 -1 1130 5.4454756900668144e-04</internalNodes>
          <leafValues>
            -8.6001940071582794e-02 1.1939062923192978e-01</leafValues></_>
        <_>
          <internalNodes>
            0 -1 1130 -4.4852844439446926e-04</internalNodes>
          <leafValues>
            1.4414551854133606e-01 -7.8940942883491516e-02</leafValues></_>
        <_>
          <internalNodes>
            0 -1 1636 -9.2655532062053680e-03</internalNodes>
          <leafValues>
            -7.2108846902847290e-01 1.5485866926610470e-02</leafValues></_>
        <_>
          <internalNodes>
            0 -1 283 2.2837813943624496e-02</internalNodes>
          <leafValues>
            2.2646155208349228e-02 -4.1295662522315979e-01</leafValues></_>
        <_>
          <internalNodes>
            0 -1 1101 -3.1209571287035942e-02</internalNodes>
          <leafValues>
            -5.0655430555343628e-01 2.0785585045814514e-02</leafValues></_>
        <_>
          <internalNodes>
            0 -1 113 -1.6128501296043396e-01</internalNodes>
          <leafValues>
            3.8279148936271667e-01 -2.8448816388845444e-02</leafValues></_>
        <_>
          <internalNodes>
            0 -1 53 -4.7853532433509827e-01</internalNodes>
          <leafValues>
            -1.0444124042987823e-01 1.0400720685720444e-01</leafValues></_>
        <_>
          <internalNodes>
            0 -1 878 -5.9690983034670353e-03</internalNodes>
          <leafValues>
            9.4921052455902100e-02 -1.2046734243631363e-01</leafValues></_>
        <_>
          <internalNodes>
            0 -1 1524 1.8874721135944128e-03</internalNodes>
          <leafValues>
            -6.3245519995689392e-02 1.7153209447860718e-01</leafValues></_>
        <_>
          <internalNodes>
            0 -1 1550 -6.3510322943329811e-03</internalNodes>
          <leafValues>
            1.5061759948730469e-01 -6.5270826220512390e-02</leafValues></_>
        <_>
          <internalNodes>
            0 -1 1342 -1.2746889144182205e-02</internalNodes>
          <leafValues>
            -4.3544521927833557e-01 2.6623331010341644e-02</leafValues></_></weakClassifiers></_>
    <!-- stage 8 -->
    <_>
      <maxWeakCount>100</maxWeakCount>
      <stageThreshold>-2.1354415416717529e+00</stageThreshold>
      <weakClassifiers>
        <_>
          <internalNodes>
            0 -1 85 -4.2254447937011719e-01</internalNodes>
          <leafValues>
            -1.1227702349424362e-01 -7.2969585657119751e-01</leafValues></_>
        <_>
          <internalNodes>
            0 -1 485 -5.1645565032958984e-01</internalNodes>
          <leafValues>
            2.5674322247505188e-01 -5.1528835296630859e-01</leafValues></_>
        <_>
          <internalNodes>
            0 -1 710 -1.4386630058288574e-01</internalNodes>
          <leafValues>
            1.6371996700763702e-01 -3.7186920642852783e-01</leafValues></_>
        <_>
          <internalNodes>
            0 -1 177 -2.5899294763803482e-02</internalNodes>
          <leafValues>
            3.2386660575866699e-01 -1.8657408654689789e-01</leafValues></_>
        <_>
          <internalNodes>
            0 -1 1046 -1.5634564682841301e-02</internalNodes>
          <leafValues>
            7.0843890309333801e-02 -4.5238408446311951e-01</leafValues></_>
        <_>
          <internalNodes>
            0 -1 869 -1.5400216914713383e-02</internalNodes>
          <leafValues>
            1.2166614085435867e-01 -2.8610792756080627e-01</leafValues></_>
        <_>
          <internalNodes>
            0 -1 1384 -7.3329945735167712e-05</internalNodes>
          <leafValues>
            1.1180107295513153e-01 -2.5456699728965759e-01</leafValues></_>
        <_>
          <internalNodes>
            0 -1 460 -2.1002370864152908e-02</internalNodes>
          <leafValues>
            1.0832020640373230e-01 -2.1198643743991852e-01</leafValues></_>
        <_>
          <internalNodes>
            0 -1 1222 -6.9074640050530434e-03</internalNodes>
          <leafValues>
            1.1731277406215668e-01 -1.8666152656078339e-01</leafValues></_>
        <_>
          <internalNodes>
            0 -1 909 1.8039341084659100e-03</internalNodes>
          <leafValues>
            6.1039313673973083e-02 -3.0047899484634399e-01</leafValues></_>
        <_>
          <internalNodes>
            0 -1 163 1.1270449031144381e-03</internalNodes>
          <leafValues>
            7.2980187833309174e-02 -2.5831678509712219e-01</leafValues></_>
        <_>
          <internalNodes>
            0 -1 961 -3.8360911421477795e-03</internalNodes>
          <leafValues>
            1.3949584960937500e-01 -1.5074412524700165e-01</leafValues></_>
        <_>
          <internalNodes>
            0 -1 485 -5.1485794782638550e-01</internalNodes>
          <leafValues>
            -1.5740734338760376e-01 1.2056732177734375e-01</leafValues></_>
        <_>
          <internalNodes>
            0 -1 213 -4.2291521094739437e-03</internalNodes>
          <leafValues>
            1.4666481316089630e-01 -1.6714704036712646e-01</leafValues></_>
        <_>
          <internalNodes>
            0 -1 1036 -4.3489813804626465e-02</internalNodes>
          <leafValues>
            8.8150493800640106e-02 -1.9598853588104248e-01</leafValues></_>
        <_>
          <internalNodes>
            0 -1 971 -8.9610656723380089e-03</internalNodes>
          <leafValues>
            -7.2245025634765625e-01 3.1818799674510956e-02</leafValues></_>
        <_>
          <internalNodes>
            0 -1 707 -4.0155248716473579e-03</internalNodes>
          <leafValues>
            1.6210480034351349e-01 -9.6597716212272644e-02</leafValues></_>
        <_>
          <internalNodes>
            0 -1 778 3.0171731486916542e-03</internalNodes>
          <leafValues>
            4.4620741158723831e-02 -3.4099566936492920e-01</leafValues></_>
        <_>
          <internalNodes>
            0 -1 288 -9.8721206188201904e-02</internalNodes>
          <leafValues>
            -4.5087821781635284e-02 4.0071585774421692e-01</leafValues></_>
        <_>
          <internalNodes>
            0 -1 734 -8.2414615899324417e-03</internalNodes>
          <leafValues>
            7.0774644613265991e-02 -2.1832077205181122e-01</leafValues></_>
        <_>
          <internalNodes>
            0 -1 1214 -2.7526222169399261e-02</internalNodes>
          <leafValues>
            -7.2849792242050171e-01 1.0580863803625107e-02</leafValues></_>
        <_>
          <internalNodes>
            0 -1 245 -5.5491728708148003e-03</internalNodes>
          <leafValues>
            1.3632981479167938e-01 -1.0461978614330292e-01</leafValues></_>
        <_>
          <internalNodes>
            0 -1 236 -1.7100660130381584e-02</internalNodes>
          <leafValues>
            -4.1716060042381287e-01 3.7249017506837845e-02</leafValues></_>
        <_>
          <internalNodes>
            0 -1 653 -8.5376026108860970e-03</internalNodes>
          <leafValues>
            -5.0469022989273071e-01 2.2905165329575539e-02</leafValues></_>
        <_>
          <internalNodes>
            0 -1 1276 -8.5381721146404743e-04</internalNodes>
          <leafValues>
            -3.0974957346916199e-01 3.6844048649072647e-02</leafValues></_>
        <_>
          <internalNodes>
            0 -1 1607 4.7414805158041418e-04</internalNodes>
          <leafValues>
            -8.4734842181205750e-02 1.5236368775367737e-01</leafValues></_>
        <_>
          <internalNodes>
            0 -1 1639 -1.1148780584335327e-02</internalNodes>
          <leafValues>
            -6.6338467597961426e-01 1.8921868875622749e-02</leafValues></_>
        <_>
          <internalNodes>
            0 -1 375 -2.3971887305378914e-02</internalNodes>
          <leafValues>
            -4.5040756464004517e-01 2.6928391307592392e-02</leafValues></_>
        <_>
          <internalNodes>
            0 -1 1497 -8.2983095198869705e-03</internalNodes>
          <leafValues>
            2.5800257921218872e-01 -5.3085278719663620e-02</leafValues></_>
        <_>
          <internalNodes>
            0 -1 779 3.1542815268039703e-02</internalNodes>
          <leafValues>
            -3.4463949501514435e-02 3.7452292442321777e-01</leafValues></_>
        <_>
          <internalNodes>
            0 -1 780 1.0161406360566616e-02</internalNodes>
          <leafValues>
            5.4818194359540939e-02 -3.0067276954650879e-01</leafValues></_>
        <_>
          <internalNodes>
            0 -1 109 1.6519870609045029e-02</internalNodes>
          <leafValues>
            -5.6869626045227051e-02 2.1172569692134857e-01</leafValues></_>
        <_>
          <internalNodes>
            0 -1 925 8.6704296991229057e-03</internalNodes>
          <leafValues>
            4.2735822498798370e-02 -2.7719256281852722e-01</leafValues></_>
        <_>
          <internalNodes>
            0 -1 1142 -4.8649355769157410e-02</internalNodes>
          <leafValues>
            -6.1773848533630371e-01 1.9333373755216599e-02</leafValues></_>
        <_>
          <internalNodes>
            0 -1 206 -2.0323855802416801e-02</internalNodes>
          <leafValues>
            -3.7402683496475220e-01 2.6695195585489273e-02</leafValues></_>
        <_>
          <internalNodes>
            0 -1 1 -1.9213489722460508e-03</internalNodes>
          <leafValues>
            1.7542329430580139e-01 -6.5249495208263397e-02</leafValues></_>
        <_>
          <internalNodes>
            0 -1 1366 -1.2010520324110985e-02</internalNodes>
          <leafValues>
            -8.4705120325088501e-01 1.4958542771637440e-02</leafValues></_>
        <_>
          <internalNodes>
            0 -1 374 -1.3405792415142059e-02</internalNodes>
          <leafValues>
            7.3471575975418091e-02 -1.5036258101463318e-01</leafValues></_>
        <_>
          <internalNodes>
            0 -1 271 7.9203415662050247e-03</internalNodes>
          <leafValues>
            1.7934333533048630e-02 -5.8196735382080078e-01</leafValues></_>
        <_>
          <internalNodes>
            0 -1 293 9.9778771400451660e-03</internalNodes>
          <leafValues>
            1.5835361555218697e-02 -6.0538578033447266e-01</leafValues></_>
        <_>
          <internalNodes>
            0 -1 62 1.6524756792932749e-03</internalNodes>
          <leafValues>
            -8.6190357804298401e-02 1.5678530931472778e-01</leafValues></_>
        <_>
          <internalNodes>
            0 -1 1439 3.5906415432691574e-03</internalNodes>
          <leafValues>
            -1.3787415623664856e-01 7.8555129468441010e-02</leafValues></_>
        <_>
          <internalNodes>
            0 -1 1596 6.5738737583160400e-02</internalNodes>
          <leafValues>
            3.1655136495828629e-02 -3.5391545295715332e-01</leafValues></_>
        <_>
          <internalNodes>
            0 -1 849 6.4234220981597900e-01</internalNodes>
          <leafValues>
            -4.5334815979003906e-02 2.5783225893974304e-01</leafValues></_>
        <_>
          <internalNodes>
            0 -1 1577 1.1869254522025585e-02</internalNodes>
          <leafValues>
            1.8170865252614021e-02 -6.6302537918090820e-01</leafValues></_>
        <_>
          <internalNodes>
            0 -1 1553 -1.3076486065983772e-03</internalNodes>
          <leafValues>
            1.4683941006660461e-01 -8.5380412638187408e-02</leafValues></_>
        <_>
          <internalNodes>
            0 -1 1583 -2.0454789698123932e-01</internalNodes>
          <leafValues>
            -3.3677670359611511e-01 4.0312878787517548e-02</leafValues></_>
        <_>
          <internalNodes>
            0 -1 320 -1.6012061387300491e-03</internalNodes>
          <leafValues>
            1.5873040258884430e-01 -7.6146647334098816e-02</leafValues></_>
        <_>
          <internalNodes>
            0 -1 179 2.8725761920213699e-02</internalNodes>
          <leafValues>
            -6.2166940420866013e-02 1.9079971313476563e-01</leafValues></_>
        <_>
          <internalNodes>
            0 -1 637 7.7676521614193916e-03</internalNodes>
          <leafValues>
            1.8759472295641899e-02 -7.0288920402526855e-01</leafValues></_>
        <_>
          <internalNodes>
            0 -1 104 -5.7909181341528893e-03</internalNodes>
          <leafValues>
            2.4030305445194244e-01 -5.2628248929977417e-02</leafValues></_>
        <_>
          <internalNodes>
            0 -1 768 2.2781887091696262e-03</internalNodes>
          <leafValues>
            2.2280937060713768e-02 -6.1496275663375854e-01</leafValues></_>
        <_>
          <internalNodes>
            0 -1 611 -7.6878154650330544e-03</internalNodes>
          <leafValues>
            -9.2945709824562073e-02 1.2922541797161102e-01</leafValues></_>
        <_>
          <internalNodes>
            0 -1 443 7.2888750582933426e-03</internalNodes>
          <leafValues>
            -6.2126185745000839e-02 2.0049987733364105e-01</leafValues></_>
        <_>
          <internalNodes>
            0 -1 845 -4.9969270825386047e-02</internalNodes>
          <leafValues>
            -5.4234290122985840e-01 2.1896529942750931e-02</leafValues></_>
        <_>
          <internalNodes>
            0 -1 225 -2.5048829615116119e-02</internalNodes>
          <leafValues>
            -5.2271652221679688e-01 2.0708853378891945e-02</leafValues></_>
        <_>
          <internalNodes>
            0 -1 64 4.8946769675239921e-04</internalNodes>
          <leafValues>
            -6.5740033984184265e-02 1.5376375615596771e-01</leafValues></_>
        <_>
          <internalNodes>
            0 -1 438 -6.0695474967360497e-03</internalNodes>
          <leafValues>
            -4.6144765615463257e-01 2.4530539289116859e-02</leafValues></_>
        <_>
          <internalNodes>
            0 -1 1533 -1.0370366275310516e-02</internalNodes>
          <leafValues>
            -6.9923484325408936e-01 1.2645198032259941e-02</leafValues></_>
        <_>
          <internalNodes>
            0 -1 439 -1.8807566957548261e-03</internalNodes>
          <leafValues>
            1.5616655349731445e-01 -6.7480541765689850e-02</leafValues></_>
        <_>
          <internalNodes>
            0 -1 1130 1.8479630816727877e-03</internalNodes>
          <leafValues>
            -5.2399553358554840e-02 2.0577077567577362e-01</leafValues></_>
        <_>
          <internalNodes>
            0 -1 857 -9.0364441275596619e-03</internalNodes>
          <leafValues>
            -6.3922923803329468e-01 1.7934273928403854e-02</leafValues></_>
        <_>
          <internalNodes>
            0 -1 837 5.3984979167580605e-03</internalNodes>
          <leafValues>
            4.5054588466882706e-02 -2.2066423296928406e-01</leafValues></_>
        <_>
          <internalNodes>
            0 -1 727 4.4123884290456772e-02</internalNodes>
          <leafValues>
            -3.1320825219154358e-02 3.6502948403358459e-01</leafValues></_>
        <_>
          <internalNodes>
            0 -1 1254 -2.8675803914666176e-03</internalNodes>
          <leafValues>
            -2.3712529242038727e-01 4.6104911714792252e-02</leafValues></_>
        <_>
          <internalNodes>
            0 -1 1354 -3.2113408669829369e-03</internalNodes>
          <leafValues>
            9.2798620462417603e-02 -1.2521462142467499e-01</leafValues></_>
        <_>
          <internalNodes>
            0 -1 1008 6.4807059243321419e-03</internalNodes>
          <leafValues>
            1.5753442421555519e-02 -6.9368439912796021e-01</leafValues></_>
        <_>
          <internalNodes>
            0 -1 107 -6.9033302366733551e-02</internalNodes>
          <leafValues>
            -3.9347076416015625e-01 2.3071812465786934e-02</leafValues></_>
        <_>
          <internalNodes>
            0 -1 1262 3.8651585578918457e-02</internalNodes>
          <leafValues>
            1.6196677461266518e-02 -5.3965777158737183e-01</leafValues></_>
        <_>
          <internalNodes>
            0 -1 1378 -4.2273305356502533e-02</internalNodes>
          <leafValues>
            -4.6749141812324524e-01 1.7360109835863113e-02</leafValues></_>
        <_>
          <internalNodes>
            0 -1 787 -6.7626684904098511e-03</internalNodes>
          <leafValues>
            -9.8919379711151123e-01 8.5288276895880699e-03</leafValues></_>
        <_>
          <internalNodes>
            0 -1 886 7.5473627075552940e-03</internalNodes>
          <leafValues>
            -2.3744562640786171e-02 4.6851882338523865e-01</leafValues></_>
        <_>
          <internalNodes>
            0 -1 64 -9.9512352608144283e-04</internalNodes>
          <leafValues>
            1.2204340845346451e-01 -8.0468863248825073e-02</leafValues></_>
        <_>
          <internalNodes>
            0 -1 1005 -5.4850131273269653e-02</internalNodes>
          <leafValues>
            2.9254505410790443e-02 -3.2755723595619202e-01</leafValues></_>
        <_>
          <internalNodes>
            0 -1 485 -5.2330780029296875e-01</internalNodes>
          <leafValues>
            -9.5503538846969604e-02 1.0719861090183258e-01</leafValues></_>
        <_>
          <internalNodes>
            0 -1 1308 1.0139687219634652e-03</internalNodes>
          <leafValues>
            -7.1728184819221497e-02 1.3576111197471619e-01</leafValues></_>
        <_>
          <internalNodes>
            0 -1 1196 -3.8590870797634125e-02</internalNodes>
          <leafValues>
            4.5536771416664124e-01 -2.2782089188694954e-02</leafValues></_>
        <_>
          <internalNodes>
            0 -1 209 2.9248731210827827e-02</internalNodes>
          <leafValues>
            1.3664541766047478e-02 -9.4085264205932617e-01</leafValues></_>
        <_>
          <internalNodes>
            0 -1 1555 -5.9730792418122292e-03</internalNodes>
          <leafValues>
            -6.3446706533432007e-01 1.1458440683782101e-02</leafValues></_>
        <_>
          <internalNodes>
            0 -1 573 -3.2630350324325264e-04</internalNodes>
          <leafValues>
            8.8870167732238770e-02 -1.2119103223085403e-01</leafValues></_>
        <_>
          <internalNodes>
            0 -1 1246 1.2986300885677338e-01</internalNodes>
          <leafValues>
            -1.7014270648360252e-02 6.3392764329910278e-01</leafValues></_>
        <_>
          <internalNodes>
            0 -1 336 5.6447006762027740e-02</internalNodes>
          <leafValues>
            3.6953881382942200e-02 -3.1209471821784973e-01</leafValues></_>
        <_>
          <internalNodes>
            0 -1 696 -1.7698526382446289e-02</internalNodes>
          <leafValues>
            -4.3202826380729675e-01 2.1038420498371124e-02</leafValues></_>
        <_>
          <internalNodes>
            0 -1 670 -2.4059289135038853e-03</internalNodes>
          <leafValues>
            7.4148401618003845e-02 -1.3705590367317200e-01</leafValues></_>
        <_>
          <internalNodes>
            0 -1 18 -9.2474609613418579e-02</internalNodes>
          <leafValues>
            -1.0123172402381897e-01 1.1370633542537689e-01</leafValues></_>
        <_>
          <internalNodes>
            0 -1 1557 -2.0772641524672508e-02</internalNodes>
          <leafValues>
            -5.4529488086700439e-01 2.0998638123273849e-02</leafValues></_>
        <_>
          <internalNodes>
            0 -1 1108 -3.5342469345778227e-04</internalNodes>
          <leafValues>
            7.6909244060516357e-02 -1.3264159858226776e-01</leafValues></_>
        <_>
          <internalNodes>
            0 -1 1506 4.9069983651861548e-04</internalNodes>
          <leafValues>
            -7.2371713817119598e-02 1.6172184050083160e-01</leafValues></_>
        <_>
          <internalNodes>
            0 -1 1506 -1.8542603356763721e-03</internalNodes>
          <leafValues>
            1.7855529487133026e-01 -6.2030155211687088e-02</leafValues></_>
        <_>
          <internalNodes>
            0 -1 1117 1.5800811350345612e-02</internalNodes>
          <leafValues>
            1.1848037131130695e-02 -7.3809868097305298e-01</leafValues></_>
        <_>
          <internalNodes>
            0 -1 1607 -3.8581574335694313e-04</internalNodes>
          <leafValues>
            1.0480649769306183e-01 -9.3981035053730011e-02</leafValues></_>
        <_>
          <internalNodes>
            0 -1 1437 -3.3609750680625439e-03</internalNodes>
          <leafValues>
            2.3960733413696289e-01 -4.3393593281507492e-02</leafValues></_>
        <_>
          <internalNodes>
            0 -1 1158 1.4204547042027116e-03</internalNodes>
          <leafValues>
            3.3607579767704010e-02 -3.2092821598052979e-01</leafValues></_>
        <_>
          <internalNodes>
            0 -1 1034 2.1614942699670792e-02</internalNodes>
          <leafValues>
            -1.9779909402132034e-02 6.0485821962356567e-01</leafValues></_>
        <_>
          <internalNodes>
            0 -1 1514 -1.1743656359612942e-03</internalNodes>
          <leafValues>
            1.3792979717254639e-01 -7.5976446270942688e-02</leafValues></_>
        <_>
          <internalNodes>
            0 -1 1514 -8.0723781138658524e-03</internalNodes>
          <leafValues>
            -4.8752880096435547e-01 2.1109998226165771e-02</leafValues></_>
        <_>
          <internalNodes>
            0 -1 743 -3.6200452595949173e-03</internalNodes>
          <leafValues>
            7.1850687265396118e-02 -1.3532875478267670e-01</leafValues></_>
        <_>
          <internalNodes>
            0 -1 862 2.1583195775747299e-02</internalNodes>
          <leafValues>
            2.0022476091980934e-02 -5.2426904439926147e-01</leafValues></_>
        <_>
          <internalNodes>
            0 -1 1216 -8.4887277334928513e-03</internalNodes>
          <leafValues>
            -7.1570581197738647e-01 1.2061432003974915e-02</leafValues></_>
        <_>
          <internalNodes>
            0 -1 1290 4.2413594201207161e-04</internalNodes>
          <leafValues>
            -8.1062093377113342e-02 1.2597543001174927e-01</leafValues></_></weakClassifiers></_>
    <!-- stage 9 -->
    <_>
      <maxWeakCount>100</maxWeakCount>
      <stageThreshold>-1.9646781682968140e+00</stageThreshold>
      <weakClassifiers>
        <_>
          <internalNodes>
            0 -1 288 -6.8827140331268311e-01</internalNodes>
          <leafValues>
            7.3017865419387817e-02 -5.6018191576004028e-01</leafValues></_>
        <_>
          <internalNodes>
            0 -1 85 -6.0101515054702759e-01</internalNodes>
          <leafValues>
            3.4600731730461121e-01 -3.7588009238243103e-01</leafValues></_>
        <_>
          <internalNodes>
            0 -1 288 -3.8587075471878052e-01</internalNodes>
          <leafValues>
            1.7946165800094604e-01 -4.4595918059349060e-01</leafValues></_>
        <_>
          <internalNodes>
            0 -1 85 -3.3365434408187866e-01</internalNodes>
          <leafValues>
            1.8465054035186768e-01 -4.6259686350822449e-01</leafValues></_>
        <_>
          <internalNodes>
            0 -1 1337 -5.1346354186534882e-02</internalNodes>
          <leafValues>
            9.7114525735378265e-02 -3.2311835885047913e-01</leafValues></_>
        <_>
          <internalNodes>
            0 -1 1344 1.1221562745049596e-03</internalNodes>
          <leafValues>
            7.7444106340408325e-02 -3.1764519214630127e-01</leafValues></_>
        <_>
          <internalNodes>
            0 -1 401 -7.4999174103140831e-03</internalNodes>
          <leafValues>
            1.5414510667324066e-01 -1.7092235386371613e-01</leafValues></_>
        <_>
          <internalNodes>
            0 -1 534 -3.0043077468872070e-01</internalNodes>
          <leafValues>
            5.0106781721115112e-01 -5.0499290227890015e-02</leafValues></_>
        <_>
          <internalNodes>
            0 -1 946 -3.0356790870428085e-02</internalNodes>
          <leafValues>
            1.6693365573883057e-01 -1.3673953711986542e-01</leafValues></_>
        <_>
          <internalNodes>
            0 -1 883 -1.3835174962878227e-02</internalNodes>
          <leafValues>
            5.9337932616472244e-02 -2.8537610173225403e-01</leafValues></_>
        <_>
          <internalNodes>
            0 -1 530 -9.8669882863759995e-03</internalNodes>
          <leafValues>
            1.0264041274785995e-01 -2.3130917549133301e-01</leafValues></_>
        <_>
          <internalNodes>
            0 -1 1460 -1.3571273535490036e-02</internalNodes>
          <leafValues>
            -6.8140006065368652e-01 -1.2809732928872108e-02</leafValues></_>
        <_>
          <internalNodes>
            0 -1 1598 -9.9574336782097816e-03</internalNodes>
          <leafValues>
            -7.3557382822036743e-01 4.5833982527256012e-02</leafValues></_>
        <_>
          <internalNodes>
            0 -1 1467 -2.4020951241254807e-03</internalNodes>
          <leafValues>
            1.2449178844690323e-01 -1.4223302900791168e-01</leafValues></_>
        <_>
          <internalNodes>
            0 -1 1074 3.8395244628190994e-03</internalNodes>
          <leafValues>
            3.9093255996704102e-02 -3.6691552400588989e-01</leafValues></_>
        <_>
          <internalNodes>
            0 -1 1514 -9.2490781098604202e-03</internalNodes>
          <leafValues>
            -5.9808886051177979e-01 2.8861666098237038e-02</leafValues></_>
        <_>
          <internalNodes>
            0 -1 414 -8.2697672769427299e-04</internalNodes>
          <leafValues>
            7.1901470422744751e-02 -2.2278033196926117e-01</leafValues></_>
        <_>
          <internalNodes>
            0 -1 409 -2.0371031016111374e-02</internalNodes>
          <leafValues>
